Language model created by QuickLM on Thu Nov 14 19:08:14 EST 2019
Copyright (c) 1996-2010 Carnegie Mellon University and Alexander I. Rudnicky

The model is in standard ARPA format, designed by Doug Paul while he was at MITRE.

The code that was used to produce this language model is available in Open Source.
Please visit http://www.speech.cs.cmu.edu/tools/ for more information

The (fixed) discount mass is 0.5. The backoffs are computed using the ratio method.
This model based on a corpus of 160 sentences and 84 words

\data\
ngram 1=84
ngram 2=179
ngram 3=249

\1-grams:
-2.5821 2332 -0.2696
-3.3602 2332TAKE -0.2832
-2.5821 2333 -0.2696
-3.3602 2333TAKE -0.2832
-2.5821 2334 -0.2696
-3.3602 2334TAKE -0.2832
-2.5821 2335 -0.2696
-3.3602 2335TAKE -0.2832
-2.5821 2336 -0.2696
-3.3602 2336TAKE -0.2832
-2.5821 2337 -0.2696
-3.3602 2337TAKE -0.2832
-2.5821 2338 -0.2696
-3.3602 2338TAKE -0.2832
-2.5821 2340 -0.2696
-3.3602 2340TAKE -0.2832
-2.5821 2341 -0.2696
-3.3602 2341TAKE -0.2832
-2.5821 2342 -0.2696
-3.3602 2342TAKE -0.2832
-2.5821 2344 -0.2696
-3.3602 2344TAKE -0.2832
-2.5821 2346 -0.2696
-3.3602 2346TAKE -0.2832
-2.5821 2347 -0.2696
-3.3602 2347TAKE -0.2832
-2.5821 2350 -0.2696
-3.3602 2350TAKE -0.2832
-2.5821 2355 -0.2696
-3.3602 2355TAKE -0.2832
-2.5821 2356 -0.2696
-3.3602 2356TAKE -0.2832
-2.5821 2357 -0.2696
-3.3602 2357TAKE -0.2832
-2.5821 2358 -0.2696
-3.3602 2358TAKE -0.2832
-2.5821 2359 -0.2696
-3.3602 2359TAKE -0.2832
-2.5821 2360 -0.2696
-3.3602 2360TAKE -0.2832
-2.5821 2361 -0.2696
-3.3602 2361TAKE -0.2832
-2.5821 2362 -0.2696
-3.3602 2362TAKE -0.2832
-2.5821 2363 -0.2696
-3.3602 2363TAKE -0.2832
-1.1561 </s> -0.3010
-1.1561 <s> -0.2688
-2.6612 AM -0.2911
-3.0592 ARE -0.3007
-3.3602 ATRIUM? -0.2696
-3.0592 BACKWARD -0.2696
-3.3602 BUILDING -0.3001
-1.6881 DO -0.2915
-3.0592 FORWARD -0.2696
-1.6881 GET -0.2739
-2.7582 GO -0.2995
-3.3602 HELLO -0.3007
-3.3602 HI -0.3007
-1.6700 HOW -0.2916
-1.6612 I -0.2915
-3.0592 I? -0.2696
-2.8831 IN? -0.2696
-1.9985 IS -0.2966
-3.0592 KLAUBA -0.2696
-2.7582 KLAUBA, -0.2856
-3.3602 KLAUBA? -0.2696
-3.0592 LEFT -0.2696
-1.3964 ME -0.2739
-2.7582 MOVE -0.2995
-3.0592 MOVING -0.2696
-3.0592 RIGHT -0.2696
-1.5090 ROOM -0.2731
-1.6975 SHOW -0.2832
-3.3602 STO -0.3007
-2.8831 STOP -0.2692
-1.9985 TAKE -0.2832
-3.3602 THE -0.3008
-1.2172 TO -0.2593
-3.3602 TODAY, -0.3008
-3.3602 TODAY? -0.2696
-2.8831 WHAT -0.2872
-1.9623 WHERE -0.2957
-3.0592 YOU -0.3007

\2-grams:
-0.3010 2332 </s> -0.3010
-0.3010 2332TAKE ME 0.0000
-0.3010 2333 </s> -0.3010
-0.3010 2333TAKE ME 0.0000
-0.3010 2334 </s> -0.3010
-0.3010 2334TAKE ME 0.0000
-0.3010 2335 </s> -0.3010
-0.3010 2335TAKE ME 0.0000
-0.3010 2336 </s> -0.3010
-0.3010 2336TAKE ME 0.0000
-0.3010 2337 </s> -0.3010
-0.3010 2337TAKE ME 0.0000
-0.3010 2338 </s> -0.3010
-0.3010 2338TAKE ME 0.0000
-0.3010 2340 </s> -0.3010
-0.3010 2340TAKE ME 0.0000
-0.3010 2341 </s> -0.3010
-0.3010 2341TAKE ME 0.0000
-0.3010 2342 </s> -0.3010
-0.3010 2342TAKE ME 0.0000
-0.3010 2344 </s> -0.3010
-0.3010 2344TAKE ME 0.0000
-0.3010 2346 </s> -0.3010
-0.3010 2346TAKE ME 0.0000
-0.3010 2347 </s> -0.3010
-0.3010 2347TAKE ME 0.0000
-0.3010 2350 </s> -0.3010
-0.3010 2350TAKE ME 0.0000
-0.3010 2355 </s> -0.3010
-0.3010 2355TAKE ME 0.0000
-0.3010 2356 </s> -0.3010
-0.3010 2356TAKE ME 0.0000
-0.3010 2357 </s> -0.3010
-0.3010 2357TAKE ME 0.0000
-0.3010 2358 </s> -0.3010
-0.3010 2358TAKE ME 0.0000
-0.3010 2359 </s> -0.3010
-0.3010 2359TAKE ME 0.0000
-0.3010 2360 </s> -0.3010
-0.3010 2360TAKE ME 0.0000
-0.3010 2361 </s> -0.3010
-0.3010 2361TAKE ME 0.0000
-0.3010 2362 </s> -0.3010
-0.3010 2362TAKE ME 0.0000
-0.3010 2363 </s> -0.3010
-0.3010 2363TAKE ME 0.0000
-1.9031 <s> GO 0.0000
-2.5051 <s> HELLO 0.0000
-2.5051 <s> HI 0.0000
-0.8239 <s> HOW 0.0000
-1.9031 <s> KLAUBA, 0.0000
-1.9031 <s> MOVE 0.0000
-0.8424 <s> SHOW 0.0000
-2.5051 <s> STO 0.0000
-2.2041 <s> STOP 0.0000
-1.1434 <s> TAKE 0.0000
-2.2041 <s> WHAT 0.0000
-1.1249 <s> WHERE 0.0000
-0.5229 AM I -0.2878
-0.6990 AM I? 0.0000
-0.3010 ARE YOU 0.0000
-0.3010 ATRIUM? </s> -0.3010
-0.3010 BACKWARD </s> -0.3010
-0.3010 BUILDING AM -0.1461
-0.3010 DO I -0.0253
-0.3010 FORWARD </s> -0.3010
-0.3010 GET TO -0.0000
-0.9031 GO BACKWARD 0.0000
-0.9031 GO FORWARD 0.0000
-0.9031 GO LEFT 0.0000
-0.9031 GO RIGHT 0.0000
-0.3010 HELLO KLAUBA 0.0000
-0.3010 HI KLAUBA 0.0000
-1.6902 HOW ARE 0.0000
-0.3191 HOW DO 0.0000
-0.3279 I GET 0.0000
-1.5229 I IN? 0.0000
-0.3010 I? </s> -0.3010
-0.3010 IN? </s> -0.3010
-1.6628 IS 2332TAKE 0.0000
-1.6628 IS 2333TAKE 0.0000
-1.6628 IS 2334TAKE 0.0000
-1.6628 IS 2335TAKE 0.0000
-1.6628 IS 2336TAKE 0.0000
-1.6628 IS 2337TAKE 0.0000
-1.6628 IS 2338TAKE 0.0000
-1.6628 IS 2340TAKE 0.0000
-1.6628 IS 2341TAKE 0.0000
-1.6628 IS 2342TAKE 0.0000
-1.6628 IS 2344TAKE 0.0000
-1.6628 IS 2346TAKE 0.0000
-1.6628 IS 2347TAKE 0.0000
-1.6628 IS 2350TAKE 0.0000
-1.6628 IS 2355TAKE 0.0000
-1.6628 IS 2356TAKE 0.0000
-1.6628 IS 2357TAKE 0.0000
-1.6628 IS 2358TAKE 0.0000
-1.6628 IS 2359TAKE 0.0000
-1.6628 IS 2360TAKE 0.0000
-1.6628 IS 2361TAKE 0.0000
-1.6628 IS 2362TAKE 0.0000
-1.6628 IS 2363TAKE 0.0000
-0.3010 KLAUBA </s> -0.3010
-0.9031 KLAUBA, HOW -0.0174
-0.9031 KLAUBA, STOP -0.1249
-0.9031 KLAUBA, WHAT -0.1249
-0.9031 KLAUBA, WHERE -0.2833
-0.3010 KLAUBA? </s> -0.3010
-0.3010 LEFT </s> -0.3010
-0.3010 ME TO -0.0031
-0.9031 MOVE BACKWARD 0.0000
-0.9031 MOVE FORWARD 0.0000
-0.9031 MOVE LEFT 0.0000
-0.9031 MOVE RIGHT 0.0000
-0.3010 MOVING </s> -0.3010
-0.3010 RIGHT </s> -0.3010
-1.6752 ROOM 2332 0.0000
-1.6752 ROOM 2333 0.0000
-1.6752 ROOM 2334 0.0000
-1.6752 ROOM 2335 0.0000
-1.6752 ROOM 2336 0.0000
-1.6752 ROOM 2337 0.0000
-1.6752 ROOM 2338 0.0000
-1.6752 ROOM 2340 0.0000
-1.6752 ROOM 2341 0.0000
-1.6752 ROOM 2342 0.0000
-1.6752 ROOM 2344 0.0000
-1.6752 ROOM 2346 0.0000
-1.6752 ROOM 2347 0.0000
-1.6752 ROOM 2350 0.0000
-1.6752 ROOM 2355 0.0000
-1.6752 ROOM 2356 0.0000
-1.6752 ROOM 2357 0.0000
-1.6752 ROOM 2358 0.0000
-1.6752 ROOM 2359 0.0000
-1.6752 ROOM 2360 0.0000
-1.6752 ROOM 2361 0.0000
-1.6752 ROOM 2362 0.0000
-1.6752 ROOM 2363 0.0000
-1.8513 ROOM AM -0.1461
-0.3010 SHOW ME 0.0000
-0.3010 STO MOVING 0.0000
-0.4771 STOP </s> -0.3010
-0.7782 STOP MOVING 0.0000
-0.3010 TAKE ME 0.0000
-0.3010 THE ATRIUM? 0.0000
-1.9669 TO 2332 0.0000
-1.9669 TO 2333 0.0000
-1.9669 TO 2334 0.0000
-1.9669 TO 2335 0.0000
-1.9669 TO 2336 0.0000
-1.9669 TO 2337 0.0000
-1.9669 TO 2338 0.0000
-1.9669 TO 2340 0.0000
-1.9669 TO 2341 0.0000
-1.9669 TO 2342 0.0000
-1.9669 TO 2344 0.0000
-1.9669 TO 2346 0.0000
-1.9669 TO 2347 0.0000
-1.9669 TO 2350 0.0000
-1.9669 TO 2355 0.0000
-1.9669 TO 2356 0.0000
-1.9669 TO 2357 0.0000
-1.9669 TO 2358 0.0000
-1.9669 TO 2359 0.0000
-1.9669 TO 2360 0.0000
-1.9669 TO 2361 0.0000
-1.9669 TO 2362 0.0000
-1.9669 TO 2363 0.0000
-0.6052 TO ROOM -0.0121
-2.4440 TO THE 0.0000
-0.3010 TODAY, KLAUBA? 0.0000
-0.3010 TODAY? </s> -0.3010
-0.7782 WHAT BUILDING 0.0000
-0.4771 WHAT ROOM -0.2949
-1.3979 WHERE AM -0.2041
-0.3372 WHERE IS -0.0000
-0.6021 YOU TODAY, 0.0000
-0.6021 YOU TODAY? 0.0000

\3-grams:
-0.3010 2332TAKE ME TO
-0.3010 2333TAKE ME TO
-0.3010 2334TAKE ME TO
-0.3010 2335TAKE ME TO
-0.3010 2336TAKE ME TO
-0.3010 2337TAKE ME TO
-0.3010 2338TAKE ME TO
-0.3010 2340TAKE ME TO
-0.3010 2341TAKE ME TO
-0.3010 2342TAKE ME TO
-0.3010 2344TAKE ME TO
-0.3010 2346TAKE ME TO
-0.3010 2347TAKE ME TO
-0.3010 2350TAKE ME TO
-0.3010 2355TAKE ME TO
-0.3010 2356TAKE ME TO
-0.3010 2357TAKE ME TO
-0.3010 2358TAKE ME TO
-0.3010 2359TAKE ME TO
-0.3010 2360TAKE ME TO
-0.3010 2361TAKE ME TO
-0.3010 2362TAKE ME TO
-0.3010 2363TAKE ME TO
-0.9031 <s> GO BACKWARD
-0.9031 <s> GO FORWARD
-0.9031 <s> GO LEFT
-0.9031 <s> GO RIGHT
-0.3010 <s> HELLO KLAUBA
-0.3010 <s> HI KLAUBA
-1.6812 <s> HOW ARE
-0.3195 <s> HOW DO
-0.9031 <s> KLAUBA, HOW
-0.9031 <s> KLAUBA, STOP
-0.9031 <s> KLAUBA, WHAT
-0.9031 <s> KLAUBA, WHERE
-0.9031 <s> MOVE BACKWARD
-0.9031 <s> MOVE FORWARD
-0.9031 <s> MOVE LEFT
-0.9031 <s> MOVE RIGHT
-0.3010 <s> SHOW ME
-0.3010 <s> STO MOVING
-0.6021 <s> STOP </s>
-0.6021 <s> STOP MOVING
-0.3010 <s> TAKE ME
-0.6021 <s> WHAT BUILDING
-0.6021 <s> WHAT ROOM
-1.6812 <s> WHERE AM
-0.3195 <s> WHERE IS
-0.3010 AM I IN?
-0.3010 AM I? </s>
-0.6021 ARE YOU TODAY,
-0.6021 ARE YOU TODAY?
-0.3010 BUILDING AM I
-0.3010 DO I GET
-1.9731 GET TO 2332
-1.9731 GET TO 2333
-1.9731 GET TO 2334
-1.9731 GET TO 2335
-1.9731 GET TO 2336
-1.9731 GET TO 2337
-1.9731 GET TO 2338
-1.9731 GET TO 2340
-1.9731 GET TO 2341
-1.9731 GET TO 2342
-1.9731 GET TO 2344
-1.9731 GET TO 2346
-1.9731 GET TO 2347
-1.9731 GET TO 2350
-1.9731 GET TO 2355
-1.9731 GET TO 2356
-1.9731 GET TO 2357
-1.9731 GET TO 2358
-1.9731 GET TO 2359
-1.9731 GET TO 2360
-1.9731 GET TO 2361
-1.9731 GET TO 2362
-1.9731 GET TO 2363
-0.6114 GET TO ROOM
-1.9731 GET TO THE
-0.3010 GO BACKWARD </s>
-0.3010 GO FORWARD </s>
-0.3010 GO LEFT </s>
-0.3010 GO RIGHT </s>
-0.3010 HELLO KLAUBA </s>
-0.3010 HI KLAUBA </s>
-0.3010 HOW ARE YOU
-0.3010 HOW DO I
-0.3010 I GET TO
-0.3010 I IN? </s>
-0.3010 IS 2332TAKE ME
-0.3010 IS 2333TAKE ME
-0.3010 IS 2334TAKE ME
-0.3010 IS 2335TAKE ME
-0.3010 IS 2336TAKE ME
-0.3010 IS 2337TAKE ME
-0.3010 IS 2338TAKE ME
-0.3010 IS 2340TAKE ME
-0.3010 IS 2341TAKE ME
-0.3010 IS 2342TAKE ME
-0.3010 IS 2344TAKE ME
-0.3010 IS 2346TAKE ME
-0.3010 IS 2347TAKE ME
-0.3010 IS 2350TAKE ME
-0.3010 IS 2355TAKE ME
-0.3010 IS 2356TAKE ME
-0.3010 IS 2357TAKE ME
-0.3010 IS 2358TAKE ME
-0.3010 IS 2359TAKE ME
-0.3010 IS 2360TAKE ME
-0.3010 IS 2361TAKE ME
-0.3010 IS 2362TAKE ME
-0.3010 IS 2363TAKE ME
-0.3010 KLAUBA, HOW DO
-0.3010 KLAUBA, STOP </s>
-0.3010 KLAUBA, WHAT ROOM
-0.3010 KLAUBA, WHERE AM
-1.9638 ME TO 2332
-1.9638 ME TO 2333
-1.9638 ME TO 2334
-1.9638 ME TO 2335
-1.9638 ME TO 2336
-1.9638 ME TO 2337
-1.9638 ME TO 2338
-1.9638 ME TO 2340
-1.9638 ME TO 2341
-1.9638 ME TO 2342
-1.9638 ME TO 2344
-1.9638 ME TO 2346
-1.9638 ME TO 2347
-1.9638 ME TO 2350
-1.9638 ME TO 2355
-1.9638 ME TO 2356
-1.9638 ME TO 2357
-1.9638 ME TO 2358
-1.9638 ME TO 2359
-1.9638 ME TO 2360
-1.9638 ME TO 2361
-1.9638 ME TO 2362
-1.9638 ME TO 2363
-0.6021 ME TO ROOM
-0.3010 MOVE BACKWARD </s>
-0.3010 MOVE FORWARD </s>
-0.3010 MOVE LEFT </s>
-0.3010 MOVE RIGHT </s>
-0.3010 ROOM 2332 </s>
-0.3010 ROOM 2333 </s>
-0.3010 ROOM 2334 </s>
-0.3010 ROOM 2335 </s>
-0.3010 ROOM 2336 </s>
-0.3010 ROOM 2337 </s>
-0.3010 ROOM 2338 </s>
-0.3010 ROOM 2340 </s>
-0.3010 ROOM 2341 </s>
-0.3010 ROOM 2342 </s>
-0.3010 ROOM 2344 </s>
-0.3010 ROOM 2346 </s>
-0.3010 ROOM 2347 </s>
-0.3010 ROOM 2350 </s>
-0.3010 ROOM 2355 </s>
-0.3010 ROOM 2356 </s>
-0.3010 ROOM 2357 </s>
-0.3010 ROOM 2358 </s>
-0.3010 ROOM 2359 </s>
-0.3010 ROOM 2360 </s>
-0.3010 ROOM 2361 </s>
-0.3010 ROOM 2362 </s>
-0.3010 ROOM 2363 </s>
-0.3010 ROOM AM I
-0.3010 SHOW ME TO
-0.3010 STO MOVING </s>
-0.3010 STOP MOVING </s>
-0.3010 TAKE ME TO
-0.3010 THE ATRIUM? </s>
-0.3010 TO 2332 </s>
-0.3010 TO 2333 </s>
-0.3010 TO 2334 </s>
-0.3010 TO 2335 </s>
-0.3010 TO 2336 </s>
-0.3010 TO 2337 </s>
-0.3010 TO 2338 </s>
-0.3010 TO 2340 </s>
-0.3010 TO 2341 </s>
-0.3010 TO 2342 </s>
-0.3010 TO 2344 </s>
-0.3010 TO 2346 </s>
-0.3010 TO 2347 </s>
-0.3010 TO 2350 </s>
-0.3010 TO 2355 </s>
-0.3010 TO 2356 </s>
-0.3010 TO 2357 </s>
-0.3010 TO 2358 </s>
-0.3010 TO 2359 </s>
-0.3010 TO 2360 </s>
-0.3010 TO 2361 </s>
-0.3010 TO 2362 </s>
-0.3010 TO 2363 </s>
-1.6628 TO ROOM 2332
-1.6628 TO ROOM 2333
-1.6628 TO ROOM 2334
-1.6628 TO ROOM 2335
-1.6628 TO ROOM 2336
-1.6628 TO ROOM 2337
-1.6628 TO ROOM 2338
-1.6628 TO ROOM 2340
-1.6628 TO ROOM 2341
-1.6628 TO ROOM 2342
-1.6628 TO ROOM 2344
-1.6628 TO ROOM 2346
-1.6628 TO ROOM 2347
-1.6628 TO ROOM 2350
-1.6628 TO ROOM 2355
-1.6628 TO ROOM 2356
-1.6628 TO ROOM 2357
-1.6628 TO ROOM 2358
-1.6628 TO ROOM 2359
-1.6628 TO ROOM 2360
-1.6628 TO ROOM 2361
-1.6628 TO ROOM 2362
-1.6628 TO ROOM 2363
-0.3010 TO THE ATRIUM?
-0.3010 TODAY, KLAUBA? </s>
-0.3010 WHAT BUILDING AM
-0.3010 WHAT ROOM AM
-0.3010 WHERE AM I?
-1.6628 WHERE IS 2332TAKE
-1.6628 WHERE IS 2333TAKE
-1.6628 WHERE IS 2334TAKE
-1.6628 WHERE IS 2335TAKE
-1.6628 WHERE IS 2336TAKE
-1.6628 WHERE IS 2337TAKE
-1.6628 WHERE IS 2338TAKE
-1.6628 WHERE IS 2340TAKE
-1.6628 WHERE IS 2341TAKE
-1.6628 WHERE IS 2342TAKE
-1.6628 WHERE IS 2344TAKE
-1.6628 WHERE IS 2346TAKE
-1.6628 WHERE IS 2347TAKE
-1.6628 WHERE IS 2350TAKE
-1.6628 WHERE IS 2355TAKE
-1.6628 WHERE IS 2356TAKE
-1.6628 WHERE IS 2357TAKE
-1.6628 WHERE IS 2358TAKE
-1.6628 WHERE IS 2359TAKE
-1.6628 WHERE IS 2360TAKE
-1.6628 WHERE IS 2361TAKE
-1.6628 WHERE IS 2362TAKE
-1.6628 WHERE IS 2363TAKE
-0.3010 YOU TODAY, KLAUBA?
-0.3010 YOU TODAY? </s>

\end\
