Language model created by QuickLM on Wed Nov 13 21:26:29 EST 2019
Copyright (c) 1996-2010 Carnegie Mellon University and Alexander I. Rudnicky

The model is in standard ARPA format, designed by Doug Paul while he was at MITRE.

The code that was used to produce this language model is available in Open Source.
Please visit http://www.speech.cs.cmu.edu/tools/ for more information

The (fixed) discount mass is 0.5. The backoffs are computed using the ratio method.
This model based on a corpus of 27 sentences and 43 words

\data\
ngram 1=43
ngram 2=74
ngram 3=74

\1-grams:
-2.5263 1116E? -0.2646
-2.5263 1116W? -0.2646
-2.5263 1320 -0.2646
-2.5263 1443? -0.2646
-2.5263 2108? -0.2646
-2.5263 2337 -0.2646
-2.5263 3100? -0.2646
-1.0950 </s> -0.3010
-1.0950 <s> -0.2604
-1.7482 AM -0.2839
-2.2253 ARE -0.2984
-2.5263 ATRIUM? -0.2646
-2.2253 BACKWARD -0.2646
-2.2253 BUILDING -0.2932
-1.6812 DO -0.2866
-2.2253 FORWARD -0.2646
-1.6812 GET -0.2906
-1.9243 GO -0.2906
-2.5263 HELLO -0.2984
-2.5263 HI -0.2984
-1.5721 HOW -0.2892
-1.4849 I -0.2866
-2.2253 I? -0.2646
-1.9243 IN? -0.2646
-2.2253 KLAUBA -0.2646
-2.0492 KLAUBA, -0.2812
-2.5263 KLAUBA? -0.2646
-2.5263 KLAUS -0.2906
-2.2253 LEFT -0.2646
-2.5263 ME -0.2906
-2.5263 MEETING -0.2906
-1.9243 MOVE -0.2906
-2.2253 RIGHT -0.2646
-1.6232 ROOM -0.2852
-2.5263 SHOW -0.2997
-2.5263 STOP -0.2646
-2.5263 THE -0.2997
-1.6232 TO -0.2852
-2.5263 TODAY, -0.2997
-2.5263 TODAY? -0.2646
-1.9243 WHAT -0.2879
-2.2253 WHERE -0.2932
-2.2253 YOU -0.2984

\2-grams:
-0.3010 1116E? </s> -0.3010
-0.3010 1116W? </s> -0.3010
-0.3010 1320 </s> -0.3010
-0.3010 1443? </s> -0.3010
-0.3010 2108? </s> -0.3010
-0.3010 2337 </s> -0.3010
-0.3010 3100? </s> -0.3010
-1.1303 <s> GO 0.0000
-1.7324 <s> HELLO 0.0000
-1.7324 <s> HI 0.0000
-0.8293 <s> HOW 0.0000
-1.2553 <s> KLAUBA, 0.0000
-1.1303 <s> MOVE 0.0000
-1.7324 <s> SHOW 0.0000
-1.7324 <s> STOP 0.0000
-1.2553 <s> WHAT 0.0000
-1.7324 <s> WHERE 0.0000
-0.4771 AM I -0.2139
-0.7782 AM I? 0.0000
-0.3010 ARE YOU 0.0000
-0.3010 ATRIUM? </s> -0.3010
-0.3010 BACKWARD </s> -0.3010
-0.3010 BUILDING AM -0.1249
-0.3010 DO I -0.1347
-0.3010 FORWARD </s> -0.3010
-0.3010 GET TO 0.0000
-0.9031 GO BACKWARD 0.0000
-0.9031 GO FORWARD 0.0000
-0.9031 GO LEFT 0.0000
-0.9031 GO RIGHT 0.0000
-0.3010 HELLO KLAUBA 0.0000
-0.3010 HI KLAUBA 0.0000
-0.9542 HOW ARE 0.0000
-0.4102 HOW DO 0.0000
-0.4973 I GET 0.0000
-0.7404 I IN? 0.0000
-0.3010 I? </s> -0.3010
-0.3010 IN? </s> -0.3010
-0.3010 KLAUBA </s> -0.3010
-0.7782 KLAUBA, HOW -0.0872
-0.7782 KLAUBA, WHAT -0.1761
-0.7782 KLAUBA, WHERE 0.0000
-0.3010 KLAUBA? </s> -0.3010
-0.3010 KLAUS ROOM -0.2730
-0.3010 LEFT </s> -0.3010
-0.3010 ME TO -0.1761
-0.3010 MEETING ROOM -0.2730
-0.9031 MOVE BACKWARD 0.0000
-0.9031 MOVE FORWARD 0.0000
-0.9031 MOVE LEFT 0.0000
-0.9031 MOVE RIGHT 0.0000
-0.3010 RIGHT </s> -0.3010
-1.2041 ROOM 1116E? 0.0000
-1.2041 ROOM 1320 0.0000
-1.2041 ROOM 1443? 0.0000
-1.2041 ROOM 2108? 0.0000
-1.2041 ROOM 2337 0.0000
-1.2041 ROOM 3100? 0.0000
-0.9031 ROOM AM -0.1249
-0.3010 SHOW ME 0.0000
-0.3010 STOP </s> -0.3010
-0.3010 THE ATRIUM? 0.0000
-1.2041 TO 1116W? 0.0000
-1.2041 TO KLAUS 0.0000
-1.2041 TO MEETING 0.0000
-0.6021 TO ROOM -0.1761
-1.2041 TO THE 0.0000
-0.3010 TODAY, KLAUBA? 0.0000
-0.3010 TODAY? </s> -0.3010
-0.6021 WHAT BUILDING 0.0000
-0.6021 WHAT ROOM -0.2430
-0.3010 WHERE AM -0.2218
-0.6021 YOU TODAY, 0.0000
-0.6021 YOU TODAY? 0.0000

\3-grams:
-0.9031 <s> GO BACKWARD
-0.9031 <s> GO FORWARD
-0.9031 <s> GO LEFT
-0.9031 <s> GO RIGHT
-0.3010 <s> HELLO KLAUBA
-0.3010 <s> HI KLAUBA
-0.9031 <s> HOW ARE
-0.4260 <s> HOW DO
-0.7782 <s> KLAUBA, HOW
-0.7782 <s> KLAUBA, WHAT
-0.7782 <s> KLAUBA, WHERE
-0.9031 <s> MOVE BACKWARD
-0.9031 <s> MOVE FORWARD
-0.9031 <s> MOVE LEFT
-0.9031 <s> MOVE RIGHT
-0.3010 <s> SHOW ME
-0.3010 <s> STOP </s>
-0.4771 <s> WHAT BUILDING
-0.7782 <s> WHAT ROOM
-0.3010 <s> WHERE AM
-0.3010 AM I IN?
-0.3010 AM I? </s>
-0.6021 ARE YOU TODAY,
-0.6021 ARE YOU TODAY?
-0.3010 BUILDING AM I
-0.3010 DO I GET
-1.1461 GET TO 1116W?
-1.1461 GET TO KLAUS
-1.1461 GET TO MEETING
-0.6690 GET TO ROOM
-1.1461 GET TO THE
-0.3010 GO BACKWARD </s>
-0.3010 GO FORWARD </s>
-0.3010 GO LEFT </s>
-0.3010 GO RIGHT </s>
-0.3010 HELLO KLAUBA </s>
-0.3010 HI KLAUBA </s>
-0.3010 HOW ARE YOU
-0.3010 HOW DO I
-0.3010 I GET TO
-0.3010 I IN? </s>
-0.3010 KLAUBA, HOW DO
-0.3010 KLAUBA, WHAT ROOM
-0.3010 KLAUBA, WHERE AM
-0.3010 KLAUS ROOM 1116E?
-0.3010 ME TO ROOM
-0.3010 MEETING ROOM 3100?
-0.3010 MOVE BACKWARD </s>
-0.3010 MOVE FORWARD </s>
-0.3010 MOVE LEFT </s>
-0.3010 MOVE RIGHT </s>
-0.3010 ROOM 1116E? </s>
-0.3010 ROOM 1320 </s>
-0.3010 ROOM 1443? </s>
-0.3010 ROOM 2108? </s>
-0.3010 ROOM 2337 </s>
-0.3010 ROOM 3100? </s>
-0.3010 ROOM AM I
-0.3010 SHOW ME TO
-0.3010 THE ATRIUM? </s>
-0.3010 TO 1116W? </s>
-0.3010 TO KLAUS ROOM
-0.3010 TO MEETING ROOM
-0.9031 TO ROOM 1320
-0.9031 TO ROOM 1443?
-0.9031 TO ROOM 2108?
-0.9031 TO ROOM 2337
-0.3010 TO THE ATRIUM?
-0.3010 TODAY, KLAUBA? </s>
-0.3010 WHAT BUILDING AM
-0.3010 WHAT ROOM AM
-0.3010 WHERE AM I?
-0.3010 YOU TODAY, KLAUBA?
-0.3010 YOU TODAY? </s>

\end\
